{"layers":[16,10,10,2],"neurons":[{"neuron":[1.0,4.0,3.0,2.0,3.0,2.0,4.0,1.0,2.0,1.0,2.0,3.0,2.0,3.0,1.0,4.0]},{"neuron":[0.9021368622779846,0.9338826537132263,-0.682132363319397,-0.8472918272018433,-0.9996162056922913,0.9703317284584045,0.9935716390609741,0.9993360638618469,-0.9946407675743103,0.9992562532424927]},{"neuron":[0.5551005005836487,0.8221323490142822,0.3366846740245819,0.0832553505897522,-0.0748833566904068,0.636391818523407,-0.0009712552418932319,0.12061206996440888,0.012778084725141526,-0.4607597589492798]},{"neuron":[0.5153884887695313,0.26455941796302798]}],"weigths":[{"weightList":[{"weigth":[-0.3638584613800049,-0.21568197011947633,-0.28432953357696535,0.09531158208847046,0.29791688919067385,0.04689859598875046,-0.05307299271225929,0.2940993309020996,0.31971657276153567,0.1764838546514511,0.21308456361293794,0.19238410890102387,-0.5134080052375794,-0.07425656169652939,-0.09755498170852661,0.45777010917663576]},{"weigth":[-0.07956583797931671,0.16479986906051637,0.9220316410064697,0.5212559700012207,0.07564479112625122,0.25052130222320559,-0.36618876457214358,0.0556672066450119,0.028274357318878175,0.048108942806720737,-0.09089520573616028,-0.29326027631759646,-0.2570924758911133,-0.4059779644012451,0.6499442458152771,0.004971217829734087]},{"weigth":[0.36304712295532229,-0.15958935022354127,-0.04762478545308113,0.06310398131608963,-0.055936992168426517,-0.36827540397644045,0.46466171741485598,0.029056251049041749,0.5658990740776062,-1.2814557552337647,0.7048013210296631,-0.2199060320854187,0.21728967130184174,0.05821722745895386,-0.17830556631088258,-0.6389020681381226]},{"weigth":[0.31817543506622317,0.33046889305114748,0.005574679002165794,-0.6848016381263733,0.37649381160736086,0.4237785041332245,-0.4270695447921753,-0.34443819522857668,-0.44288885593414309,-0.4675365686416626,-0.6216013431549072,0.40140795707702639,-0.36840131878852847,0.4152231216430664,0.1095273345708847,-0.1710171103477478]},{"weigth":[-0.0773230567574501,-0.14074957370758058,-0.674926221370697,-0.2352195382118225,-0.24205659329891206,-0.24325436353683473,-0.45249712467193606,-1.0434240102767945,0.3285696506500244,0.03618055582046509,-0.32421934604644778,-0.07318729162216187,0.2451789677143097,0.2940171957015991,0.4945027828216553,0.3075530529022217]},{"weigth":[-0.29167309403419497,0.2434946447610855,0.38926029205322268,0.257946640253067,0.3403651714324951,-0.019339144229888917,0.11177700757980347,0.009545187465846539,0.7372764348983765,-0.4928704500198364,0.3543325662612915,-0.27219581604003909,-0.3655327558517456,0.037633102387189868,-0.029010353609919549,-0.48342370986938479]},{"weigth":[0.17154353857040406,-0.347678542137146,-0.015403330326080323,-0.09040254354476929,0.2727975845336914,0.7983220219612122,0.005450375843793154,0.17867881059646607,0.03064626455307007,-1.5773780345916749,0.4727899134159088,0.3640373945236206,0.4894741475582123,0.056692056357860568,-0.370996356010437,0.09987932443618775]},{"weigth":[0.29605650901794436,0.004314242862164974,-0.11338812112808228,0.11885863542556763,0.26627686619758608,-0.009450276382267475,0.146698459982872,-0.01786261796951294,-0.09517580270767212,0.004181661177426577,0.3360981345176697,0.38267743587493899,0.00011581182479858398,-0.4519038200378418,-0.38431620597839358,0.6377677321434021]},{"weigth":[-0.18458420038223267,-0.24586589634418488,0.011463935486972332,-0.24493998289108277,0.15878914296627046,-0.2925729751586914,-0.48495614528656008,-0.3027305603027344,0.16506050527095796,-0.07161044329404831,-0.15381072461605073,0.07770746946334839,0.15725022554397584,-0.33132505416870119,0.08200305700302124,0.3571583032608032]},{"weigth":[-0.03352886438369751,-0.0642121434211731,-0.46565499901771548,-0.16400688886642457,0.17775152623653413,0.34258878231048586,0.041792333126068118,0.22467957437038423,-0.056748926639556888,0.6262727975845337,0.24593256413936616,0.024796808138489724,0.7798396348953247,0.03795211389660835,0.44883182644844057,0.2879939079284668]}]},{"weightList":[{"weigth":[0.03840586170554161,-0.14898847043514253,0.4212839603424072,-0.44443225860595705,0.21362686157226563,0.34408462047576907,0.7148889899253845,-0.24507835507392884,-0.00775589095428586,0.047633469104766849]},{"weigth":[0.244979128241539,-0.033970002084970477,0.15010227262973786,-0.49216151237487795,-0.14788232743740083,0.28837478160858157,0.404735803604126,-0.12077843397855759,-0.1220749020576477,-0.17116259038448335]},{"weigth":[0.27855968475341799,-0.3586771488189697,0.4773683547973633,0.00377577543258667,0.052366290241479877,0.32475507259368899,0.35101866722106936,0.19509190320968629,-0.01977020502090454,-0.06337028741836548]},{"weigth":[0.43207848072052,-0.46516621112823489,0.36952006816864016,0.04922090098261833,0.4255635440349579,0.7218228578567505,0.41973257064819338,0.159474179148674,0.34473705291748049,-0.08675378561019898]},{"weigth":[0.01239221915602684,-0.1956707090139389,-0.10214358568191529,-0.032451074570417407,0.09724122285842896,-0.2942221164703369,0.1562495082616806,-0.3150750696659088,-0.38501834869384768,0.15884016454219819]},{"weigth":[0.30627572536468508,-0.5042210817337036,-0.30272531509399416,0.04671531915664673,0.28134143352508547,-0.031088054180145265,0.3155977725982666,0.46736788749694826,0.06872116774320603,0.37915706634521487]},{"weigth":[0.05256015062332153,-0.2762899398803711,0.09845145046710968,-0.32113000750541689,-0.12466567754745484,-0.3732326328754425,0.08153232932090759,0.10112427175045014,0.2653316259384155,0.3243279457092285]},{"weigth":[0.5920087099075317,-0.4147395193576813,0.2179541438817978,-0.5696647763252258,0.28694450855255129,0.02660924196243286,0.2915201187133789,-0.1397138237953186,-0.08854994177818299,-0.3368878960609436]},{"weigth":[-0.015120504423975945,-0.10630685091018677,0.4343438148498535,-0.061620380729436877,-0.0014782672515138984,-0.02747749723494053,0.3889120817184448,0.42700767517089846,0.21405427157878877,-0.20543009042739869]},{"weigth":[-0.28673630952835085,0.23289941251277924,0.7800916433334351,-0.26040691137313845,0.2773982584476471,0.1716388314962387,-0.4337310194969177,-0.13430017232894898,-0.07775086164474487,0.45328640937805178]}]},{"weightList":[{"weigth":[0.008269104175269604,0.8106914758682251,0.7541095614433289,-0.12918835878372193,0.1337866187095642,-0.41019633412361147,0.07083278149366379,0.4764587879180908,0.5958495140075684,0.29979923367500307]},{"weigth":[0.5376414060592651,-0.2981417775154114,0.36847472190856936,-0.05952641740441322,-0.2483345866203308,-0.06781627237796784,0.35554254055023196,-0.4099414646625519,-0.16717880964279176,-0.37992632389068606]}]}],"fitness":83.5}