{"layers":[2,10,10,2],"neurons":[{"neuron":[-1.0,-1.0]},{"neuron":[0.32053709030151369,-0.4751443564891815,-0.6429765820503235,0.6238923072814941,0.27743908762931826,0.3834168314933777,-0.7453811168670654,-0.3744889497756958,-0.21891853213310243,0.3536593019962311]},{"neuron":[-0.5186382532119751,-0.9093707203865051,-0.7787229418754578,0.504766047000885,0.056524861603975299,-0.0807001143693924,0.1310526430606842,0.0035358236636966469,0.8445347547531128,0.4594475328922272]},{"neuron":[-0.8849910497665405,-0.03351563215255737]}],"weigths":[{"weightList":[{"weigth":[-0.10453122854232788,-0.22771435976028443]},{"weigth":[-0.27829039096832278,0.7949843406677246]},{"weigth":[0.29499220848083498,0.46823954582214358]},{"weigth":[-0.34101414680480959,-0.390338659286499]},{"weigth":[-0.31859445571899416,0.0336889885365963]},{"weigth":[-0.2480180859565735,-0.15604114532470704]},{"weigth":[1.2071311473846436,-0.24465101957321168]},{"weigth":[-0.0331234335899353,0.4267575740814209]},{"weigth":[-0.21455593407154084,0.4370758533477783]},{"weigth":[-0.35451531410217287,-0.015104711055755616]}]},{"weightList":[{"weigth":[-0.07075768709182739,-0.20935982465744019,0.15799342095851899,-0.11804956197738648,-0.4214881658554077,0.3645009994506836,0.36386507749557497,0.4459158182144165,-0.08032909780740738,-0.2212011218070984]},{"weigth":[-0.5494128465652466,-0.45935654640197756,-0.15951929986476899,-0.00037728677853010595,0.24416981637477876,-0.17746859788894654,2.1312592029571535,-0.1115996241569519,0.19591473042964936,-0.22157464921474458]},{"weigth":[-0.02869768813252449,-0.2605891227722168,0.21477578580379487,-0.2713916301727295,-0.3390495777130127,-0.5098188519477844,0.38964414596557619,0.4575003385543823,0.5326806306838989,0.05257338285446167]},{"weigth":[-0.10802016407251358,-0.3580969572067261,-0.3489896059036255,-0.010646641254425049,-0.0546073317527771,-0.3085192143917084,-0.4681655168533325,0.26896417140960696,-0.34464287757873537,0.03439329192042351]},{"weigth":[-0.17205160856246949,0.346900999546051,0.36429083347320559,0.5675826668739319,-0.4429086446762085,-0.11154681444168091,-0.3998013734817505,0.23300407826900483,0.008762991055846215,0.32093799114227297]},{"weigth":[0.1392068713903427,-0.4089454412460327,0.1793665736913681,0.30823758244514468,0.06779712438583374,0.006634652614593506,0.5923440456390381,0.12884019315242768,-0.18047340214252473,0.09083682298660279]},{"weigth":[0.004007286392152309,0.004901709966361523,-0.4174330234527588,0.15196727216243745,-0.12581104040145875,-0.06381990015506745,0.3003880977630615,-0.12730976939201356,0.006048159208148718,0.01857863925397396]},{"weigth":[0.2621520757675171,-0.3351461887359619,0.0847003385424614,-0.3088879883289337,-0.45589083433151247,-0.3030550479888916,-0.31809425354003909,-0.0786469578742981,0.33838891983032229,0.1629839986562729]},{"weigth":[0.40857160091400149,-0.2384302020072937,-0.4394199848175049,0.7311043739318848,0.11174160242080689,-0.06977730989456177,0.01768726110458374,-0.15023833513259889,-0.23550623655319215,0.43821465969085696]},{"weigth":[0.00024276971817016602,0.2552236318588257,-0.4607264995574951,0.07600168138742447,-0.03848224878311157,0.19191931188106538,-0.3895159959793091,0.2910264730453491,0.3110334873199463,0.277042031288147]}]},{"weightList":[{"weigth":[-0.32214581966400149,0.9169102311134338,0.3948894739151001,0.36636197566986086,-0.298037052154541,0.3850477933883667,0.30835914611816409,-0.03811770677566528,-0.5842680931091309,-0.2349337935447693]},{"weigth":[-0.38794422149658205,-0.2533247470855713,0.4791809320449829,0.3011684715747833,-0.11661182343959809,0.4681156575679779,-0.31917673349380495,0.2960200309753418,-0.3426327407360077,0.2841424345970154]}]}],"fitness":-469.6706848144531}