{"layers":[2,10,10,2],"neurons":[{"neuron":[-1.0,1.0]},{"neuron":[0.19856315851211549,-0.41185346245765688,-0.00781842041760683,-0.05822122469544411,-0.6848207116127014,0.2868567705154419,-0.2680581212043762,0.6228761672973633,-0.04591014236211777,0.7245831489562988]},{"neuron":[0.2776842713356018,0.6752129793167114,0.21410980820655824,0.09827965497970581,0.11477421224117279,-0.25619614124298098,0.7478892207145691,0.23444227874279023,-0.25711578130722048,0.8041751980781555]},{"neuron":[-0.33531811833381655,0.01760910451412201]}],"weigths":[{"weightList":[{"weigth":[-0.010094821453094483,0.19114147126674653]},{"weigth":[0.03469008207321167,-0.40315115451812746]},{"weigth":[-0.004675090312957764,-0.012493669986724854]},{"weigth":[0.36737382411956789,0.3090866804122925]},{"weigth":[0.4570739269256592,-0.38106250762939455]},{"weigth":[-0.08876198530197144,0.2063758224248886]},{"weigth":[0.24353478848934174,-0.03123563528060913]},{"weigth":[-0.44980916380882265,0.2798815965652466]},{"weigth":[0.276455283164978,0.2305128425359726]},{"weigth":[-0.47655630111694338,0.44067108631134035]}]},{"weightList":[{"weigth":[-0.07424348592758179,-0.15059548616409303,-0.4605923891067505,-0.0981932282447815,0.05680769681930542,-0.4932100772857666,-0.3048452138900757,0.23036204278469087,-0.13971799612045289,0.24474464356899262]},{"weigth":[-0.329706072807312,-0.49138736724853518,0.33649003505706789,-0.4119976758956909,-0.383650541305542,-0.2116968035697937,0.22146295011043549,0.3340773582458496,-0.024431288242340089,0.4280308485031128]},{"weigth":[0.4776967763900757,-0.4118154048919678,-0.4629826545715332,0.3902193307876587,-0.216106116771698,0.12302786856889725,-0.07470232248306275,-0.06380456686019898,0.3719966411590576,-0.24065667390823365]},{"weigth":[0.45129847526550295,0.2741767168045044,0.3489651679992676,0.23795448243618012,-0.25596311688423159,0.41547369956970217,0.03249996900558472,0.1369832158088684,-0.48207616806030276,-0.3515462875366211]},{"weigth":[-0.4411497116088867,0.06916874647140503,-0.41079092025756838,-0.307204008102417,0.337427020072937,0.26006174087524416,-0.22395235300064088,0.23325012624263764,-0.3642538785934448,0.19970594346523286]},{"weigth":[-0.10244172811508179,-0.1506841778755188,0.2680619955062866,-0.05236333608627319,0.1294531673192978,0.2909519672393799,0.45428943634033205,-0.46157896518707278,0.38625895977020266,0.17596577107906342]},{"weigth":[0.08886712789535523,-0.26049137115478518,0.31909406185150149,-0.27813565731048586,-0.4809015989303589,0.23655210435390473,0.05196195840835571,0.35605013370513918,-0.027786433696746827,0.30805206298828127]},{"weigth":[0.2241424173116684,-0.006217777729034424,0.09382611513137818,-0.1246219277381897,-0.3286396265029907,-0.0677228569984436,-0.41881871223449709,0.1136125922203064,-0.30428874492645266,-0.2999532222747803]},{"weigth":[-0.18368476629257203,0.2870368957519531,0.049118101596832278,0.00417405366897583,0.15257655084133149,-0.04485422372817993,-0.335277795791626,0.04819363355636597,-0.05711457133293152,-0.15575963258743287]},{"weigth":[0.46740639209747317,0.04971581697463989,-0.43706464767456057,0.44322729110717776,-0.36893749237060549,0.4735764265060425,-0.3922896385192871,0.45793092250823977,0.04100927710533142,0.3910670280456543]}]},{"weightList":[{"weigth":[-0.43611156940460207,0.10531216859817505,-0.08308857679367066,-0.4684154987335205,-0.045095980167388919,-0.4827061891555786,-0.06647497415542603,-0.09373825788497925,-0.24985188245773316,-0.43029117584228518]},{"weigth":[-0.3974013328552246,-0.10365981608629227,0.252627968788147,-0.26599571108818056,0.4536861181259155,0.002558410167694092,0.052391111850738528,-0.21250031888484956,0.05670660734176636,0.1788264364004135]}]}],"fitness":1069.0}