{"layers":[1,10,10,1],"neurons":[{"neuron":[1.0]},{"neuron":[-0.09486642479896546,0.41229915618896487,-0.06573904305696488,0.384424090385437,0.21722263097763062,0.07702258229255676,-0.4603409469127655,0.407374769449234,0.19835777580738069,0.07456140965223313]},{"neuron":[0.21818527579307557,0.24329262971878053,0.4512852728366852,-0.37996745109558108,0.1585846096277237,-0.35716986656188967,0.276908814907074,0.21547779440879823,-0.3424440920352936,-0.20563571155071259]},{"neuron":[0.43407201766967776]}],"weigths":[{"weightList":[{"weigth":[-0.09515255689620972]},{"weigth":[0.43837809562683108]},{"weigth":[-0.06583398580551148]},{"weigth":[0.40524062514305117]},{"weigth":[0.22073934972286225]},{"weigth":[0.07717543840408325]},{"weigth":[-0.4977438449859619]},{"weigth":[0.43245959281921389]},{"weigth":[0.20102249085903169]},{"weigth":[0.07470004260540009]}]},{"weightList":[{"weigth":[0.4802377223968506,0.031155671924352647,-0.12959463894367219,0.7533196210861206,0.2472618669271469,0.14873233437538148,0.2991523742675781,-0.1568521112203598,0.304457426071167,0.4345519542694092]},{"weigth":[-0.28846919536590578,-0.27955424785614016,0.1629599928855896,-0.009751913137733937,-0.26929545402526858,0.18710607290267945,-0.7666473388671875,0.13907454907894135,0.008299941197037697,-0.22141104936599732]},{"weigth":[-0.17645512521266938,0.41068851947784426,-0.38089048862457278,-0.37740087509155276,0.214966282248497,0.2460349202156067,-0.6083109974861145,0.10035544633865357,0.17242439091205598,-0.00631351862102747]},{"weigth":[0.08516600728034973,-0.29521334171295168,-0.477638840675354,-0.7785564064979553,0.1964947134256363,-0.06883138418197632,0.24901078641414643,0.23064294457435609,-0.05253368616104126,-0.11559563875198364]},{"weigth":[-0.20041698217391969,-0.0371871255338192,0.36682581901550295,0.36605048179626467,-0.052887655794620517,0.24952994287014008,-0.11685901880264282,0.23042450845241548,-0.4384208917617798,-0.3860039710998535]},{"weigth":[-0.3006479740142822,-0.49857044219970705,-0.25911271572113039,0.2100188136100769,0.2148435264825821,-0.32942044734954836,0.20002947747707368,-0.4658963680267334,-0.21559983491897584,0.12039119005203247]},{"weigth":[-0.03776920214295387,0.28164148330688479,0.0088557880371809,0.48635029792785647,0.41852694749832156,-0.30482566356658938,-0.00023024959955364466,-0.06942152231931687,-0.2752225399017334,-0.08614549785852432]},{"weigth":[-0.1844148188829422,0.1442350149154663,-0.03725248575210571,0.17433319985866548,0.1713300347328186,0.020726025104522706,0.09389466047286987,-0.011648532934486866,0.44204166531562807,-0.08110634982585907]},{"weigth":[0.30451953411102297,-0.5856558680534363,-0.025634706020355226,-0.32422971725463869,0.05348461866378784,-0.10462945699691773,-0.10887140035629273,-0.020232975482940675,-0.04099839925765991,-0.011407827958464623]},{"weigth":[0.25393807888031008,0.2874375581741333,-0.09280234575271607,0.29671168327331545,0.02032250165939331,-0.37491321563720705,0.44598138332366946,-0.6091420650482178,0.13789509236812592,0.3670574426651001]}]},{"weightList":[{"weigth":[0.3333038091659546,0.2989490032196045,0.43885862827301028,-0.40138959884643557,0.13174651563167573,-0.14425146579742433,-0.04705768823623657,-0.7051177024841309,-0.21193554997444154,0.054171860218048099]}]}],"fitness":1411.070068359375}