{"layers":[2,10,10,2],"neurons":[{"neuron":[-1.0,-1.0]},{"neuron":[0.048017680644989017,-0.32313570380210879,-0.0058737932704389099,-0.16371220350265504,0.5590583086013794,-0.45507416129112246,-0.9908149242401123,0.02092740312218666,0.32950037717819216,-0.37703660130500796]},{"neuron":[-0.2733081579208374,-0.4720480740070343,0.7694967985153198,-0.512679934501648,0.206770122051239,-0.052088700234889987,0.10212628543376923,-0.09582968801259995,0.02260931022465229,0.14777079224586488]},{"neuron":[-0.198853000998497,-0.1297965943813324]}],"weigths":[{"weightList":[{"weigth":[0.16903018951416017,-0.2170848250389099]},{"weigth":[0.04557842016220093,0.2895660400390625]},{"weigth":[0.0070348381996154789,-0.0011609771754592658]},{"weigth":[-0.0037801230791956188,0.16897889971733094]},{"weigth":[-0.1049780547618866,-0.5264842510223389]},{"weigth":[0.1294637769460678,0.36161744594573977]},{"weigth":[1.6859666109085084,1.0033938884735108]},{"weigth":[4.827516590921732e-7,-0.0209309421479702]},{"weigth":[-0.07758219540119171,-0.2646855115890503]},{"weigth":[0.18642324209213258,0.2101774364709854]}]},{"weightList":[{"weigth":[-0.11901682615280152,-0.00015985836216714233,0.04296443238854408,0.0065252697095274929,0.4151701033115387,-0.0004982680547982454,0.3153172731399536,0.27911511063575747,-0.9965746998786926,-0.3425898551940918]},{"weigth":[0.05331043526530266,0.328420490026474,0.09713449329137802,-0.6992090344429016,-0.021355578675866128,-0.1328401416540146,0.5889695882797241,-0.09093094617128372,-0.009327828884124756,-0.045053694397211078]},{"weigth":[-0.33328068256378176,-0.36537015438079836,-0.48502516746520998,0.1827668845653534,0.18234577775001527,-0.3360208570957184,-0.4972853660583496,-0.04161196947097778,0.8214396834373474,0.19431453943252564]},{"weigth":[-0.22961942851543427,0.1007041484117508,0.024534175172448159,0.08441252261400223,0.006080005783587694,0.38502025604248049,0.3021377921104431,0.323025107383728,0.24012422561645509,0.32764169573783877]},{"weigth":[-0.003584745107218623,0.0000964852879405953,2.0000290870666506,0.0385102741420269,0.6565281748771668,0.24787746369838715,-0.12497233599424362,0.06884143501520157,0.22286297380924226,0.596448540687561]},{"weigth":[-0.0502055287361145,-0.9109356999397278,0.23326340317726136,0.0008997981203719974,-0.16440671682357789,-4.0558316527494755e-7,-0.08851427584886551,0.49640700221061709,-0.32293400168418887,0.642732560634613]},{"weigth":[-0.36008918285369875,0.2511141300201416,0.45924726128578188,0.17822657525539399,0.17117951810359956,-0.22199636697769166,-0.21264062821865083,0.17721381783485413,-0.5955430865287781,-0.04748854786157608]},{"weigth":[-0.26533734798431399,0.4736684262752533,0.4694836139678955,0.056639641523361209,-0.08058470487594605,0.02812252566218376,-0.32028698921203616,-0.015797197818756105,-0.17069759964942933,0.32149285078048708]},{"weigth":[0.00003576589733711444,0.5319626331329346,0.03585837036371231,0.046864647418260577,-0.005188209470361471,-0.3780846893787384,-0.15175706148147584,-0.043437883257865909,0.02050502598285675,0.3261648416519165]},{"weigth":[0.6108565330505371,0.11895841360092163,0.1991332620382309,0.1373893767595291,-0.06522813439369202,-0.11033729463815689,-0.0836823582649231,0.35922181606292727,0.2465638965368271,0.010049541480839253]}]},{"weightList":[{"weigth":[-0.002038853010162711,-0.06142240762710571,-0.0676603764295578,0.24861109256744386,0.0004662071878556162,0.3167973756790161,0.30294060707092287,0.04976972937583923,-0.0012804168509319425,-0.41484448313713076]},{"weigth":[-0.10787028819322586,0.38879072666168215,0.2580712139606476,0.1881667673587799,-0.00665216613560915,0.000011247941074543633,0.06145960092544556,0.366513729095459,0.018918193876743318,-0.33029478788375857]}]}],"fitness":821.0}