{"layers":[1,10,10,1],"neurons":[{"neuron":[-1.0]},{"neuron":[-0.29597097635269167,-0.389805406332016,0.23821309208869935,0.43698936700820925,0.14692802727222444,-0.004794978071004152,0.2613697350025177,0.436295747756958,-0.32795560359954836,-0.38733476400375368]},{"neuron":[-0.2145172655582428,0.04379785805940628,0.20865854620933534,0.12629929184913636,0.36402425169944765,-0.19775614142417909,0.30687081813812258,-0.2351396083831787,-0.08255423605442047,-0.18145401775836945]},{"neuron":[-0.132469043135643]}],"weigths":[{"weightList":[{"weigth":[0.30509793758392336]},{"weigth":[0.41157054901123049]},{"weigth":[-0.24287885427474976]},{"weigth":[-0.468503475189209]},{"weigth":[-0.14799922704696656]},{"weigth":[0.00479501485824585]},{"weigth":[-0.26757800579071047]},{"weigth":[-0.4676464796066284]},{"weigth":[0.3405357599258423]},{"weigth":[0.40866053104400637]}]},{"weightList":[{"weigth":[-0.476290225982666,0.2411860078573227,-0.07840055227279663,0.08485740423202515,-0.22727566957473756,-0.00008922815322875977,0.34239935874938967,-0.3209981918334961,0.12463527917861939,0.40903913974761965]},{"weigth":[-0.30009520053863528,0.2687605619430542,0.2829129099845886,-0.3455851078033447,-0.1702234148979187,-0.37192678451538088,0.2545508146286011,-0.029955804347991945,-0.16073602437973023,-0.15605324506759644]},{"weigth":[-0.15505081415176392,-0.0022245049476623537,-0.0658065676689148,0.3289170265197754,0.43686461448669436,-0.28437042236328127,0.12521956861019135,-0.07832176983356476,-0.007596909999847412,0.07653921842575073]},{"weigth":[-0.009962856769561768,0.004369676113128662,0.04001706838607788,0.461989164352417,-0.03359156847000122,0.014941871166229248,-0.3443143367767334,0.3759356737136841,0.3448753356933594,0.10740011930465698]},{"weigth":[0.2787982225418091,-0.2227509617805481,0.3821685314178467,0.48563992977142336,0.44031500816345217,0.31138670444488528,-0.26407527923583987,-0.041209280490875247,-0.30024170875549319,0.0018590092658996583]},{"weigth":[-0.03732877969741821,0.4164459705352783,0.4627876281738281,0.3233768939971924,-0.41956186294555666,0.21758149564266206,-0.44999730587005618,-0.17226988077163697,0.25401055812835696,-0.09837275743484497]},{"weigth":[0.3457050323486328,-0.1375940442085266,0.3812364339828491,0.44459807872772219,0.43897557258605959,0.018998563289642335,-0.387195348739624,0.12163379788398743,-0.2204570472240448,0.020403921604156495]},{"weigth":[-0.1875794529914856,0.281710147857666,0.4007326364517212,0.29838109016418459,0.2050231546163559,0.04826289415359497,-0.09410160779953003,-0.30899298191070559,0.28456544876098635,0.4862403869628906]},{"weigth":[-0.18705636262893678,0.4547227621078491,-0.3611711263656616,-0.4331328868865967,-0.15582996606826783,0.0011748671531677247,0.4522143602371216,0.10390537977218628,-0.3197578191757202,-0.17804795503616334]},{"weigth":[0.031149089336395265,-0.4125710725784302,-0.2162114977836609,-0.08444482088088989,0.14776776731014253,-0.03323084115982056,-0.12312191724777222,-0.13311007618904115,0.4956827163696289,0.040626466274261478]}]},{"weightList":[{"weigth":[-0.4172278642654419,-0.19196051359176637,0.20926962792873383,-0.03634065389633179,-0.244570791721344,-0.06055647134780884,-0.4792921543121338,0.3361893892288208,0.14967022836208344,-0.342340350151062]}]}],"fitness":-5436.462890625}