{"layers":[1,10,10,2],"neurons":[{"neuron":[-1.0]},{"neuron":[-0.42794230580329897,-0.40926578640937807,0.5246979594230652,-0.3768371343612671,-0.21200262010097505,-0.10745690762996674,0.1352081447839737,0.16923320293426515,0.08219032734632492,0.05838606506586075]},{"neuron":[-0.4262494146823883,0.3712429702281952,0.8112695217132568,0.17545652389526368,0.2668628990650177,-0.25665655732154848,-0.2580834925174713,0.3050425052642822,0.27635231614112856,0.2787843942642212]},{"neuron":[-0.6945079565048218,-0.2856305241584778]}],"weigths":[{"weightList":[{"weigth":[0.4573749303817749]},{"weigth":[0.4347289800643921]},{"weigth":[-0.582800567150116]},{"weigth":[0.396368145942688]},{"weigth":[0.21526728570461274]},{"weigth":[0.10787339508533478]},{"weigth":[-0.13604122400283814]},{"weigth":[-0.17087715864181519]},{"weigth":[-0.0823761522769928]},{"weigth":[-0.0584525465965271]}]},{"weightList":[{"weigth":[-0.15300384163856507,-0.045402687042951587,-0.28296005725860598,0.8208205103874207,0.4824625253677368,0.09254390001296997,0.07881122827529907,-0.08730441331863404,0.08503416180610657,0.47578108310699465]},{"weigth":[0.2264145463705063,-0.47542619705200198,0.49914658069610598,0.000897121790330857,-0.1683596968650818,0.36175692081451418,0.1870778650045395,0.12711487710475923,-0.1680697798728943,0.013793528079986573]},{"weigth":[-1.9197402000427247,-0.4207087755203247,0.24675744771957398,0.14188264310359956,-0.2075178027153015,-0.2834974527359009,0.04818946123123169,-0.06896195560693741,0.09401097148656845,-0.2744569182395935]},{"weigth":[0.3068206310272217,-0.30276572704315188,0.4659435749053955,0.12109655141830445,-0.2567002773284912,-0.1770676076412201,-0.3513674736022949,-0.015397980809211731,-0.49830448627471926,0.05919330194592476]},{"weigth":[-0.2797577679157257,-0.2789630889892578,0.18669483065605164,0.47109711170196535,-0.028358904644846917,-0.2013091892004013,0.5779873132705689,0.037796564400196078,0.03619225695729256,0.06846600770950318]},{"weigth":[0.02721637487411499,0.453580766916275,0.11550408601760864,0.002105414867401123,-0.227755606174469,0.19297800958156587,-0.4440256357192993,-0.04312511906027794,-0.5219415426254273,-0.7256944179534912]},{"weigth":[0.5128605961799622,0.21833127737045289,-0.14282184839248658,-0.17264848947525025,-0.0036646928638219835,-0.09500784426927567,0.2891737222671509,0.0013501631328836084,0.33891624212265017,-0.40274620056152346]},{"weigth":[-0.020315825939178468,-0.14151066541671754,0.2992367744445801,0.0743820071220398,-0.2977915108203888,-0.5394370555877686,-0.12732917070388795,-0.02550560235977173,0.17326222360134126,0.09719156473875046]},{"weigth":[-0.01283075101673603,-0.3783900737762451,0.302656888961792,0.04460914805531502,0.03971010446548462,-0.29476964473724368,0.04167793318629265,-0.23233836889266969,-0.18734796345233918,0.12346147000789643]},{"weigth":[-0.4391237497329712,0.20515094697475434,0.04019743204116821,0.032812558114528659,-0.9723644256591797,0.12689441442489625,-0.31890439987182619,0.3552086651325226,-0.13934630155563355,-0.4174143075942993]}]},{"weightList":[{"weigth":[0.8328346610069275,-0.4213947653770447,-0.02383953332901001,-0.2789222002029419,-0.23023450374603272,0.15822328627109528,0.06254715472459793,0.0738251805305481,-0.1589197963476181,-0.49252164363861086]},{"weigth":[0.43677663803100588,0.16062115132808686,-0.09020012617111206,-0.044076502323150638,0.05593472346663475,-0.087832510471344,0.3578835725784302,0.3554319143295288,-0.19780439138412476,-0.30564725399017336]}]}],"fitness":-593.7958374023438}